{"weights":[{"rows":3,"cols":7,"flattened":[-0.5927331447601318,0.6582908630371094,-0.20708763599395753,-0.25112593173980715,0.06552469730377197,-0.8039076328277588,-0.5252864360809326,-0.04315340518951416,-0.01352536678314209,0.8116507530212402,-0.8562812805175781,0.009482264518737793,-0.4110907316207886,0.24348747730255128,0.5892794132232666,-0.6256973743438721,-0.0008338689804077148,-0.8287546634674072,0.7283706665039063,-0.7454924583435059,-0.11396133899688721]},{"rows":7,"cols":7,"flattened":[-0.8452968597412109,-0.9119994640350342,-0.815850019454956,-0.1402648687362671,-0.9140603542327881,-0.24534738063812257,-0.27881062030792239,-0.23385846614837647,-0.3540595769882202,0.8298156261444092,0.1106804609298706,0.6374175548553467,0.9327950477600098,-0.03033626079559326,-0.8048653602600098,0.03201138973236084,0.15799462795257569,-0.382698655128479,-0.3335634469985962,0.6992518901824951,-0.9801290035247803,-0.45199906826019289,-0.17143380641937257,-0.9623792171478272,0.48562881350517275,-0.9030251502990723,0.3887169063091278,-0.2604748010635376,0.9058032035827637,0.32582661509513857,-0.4989684820175171,-0.7693500518798828,-0.8607971668243408,0.25083181262016299,-0.39742767810821535,-0.09303605556488037,0.8929486274719238,0.2982799708843231,-0.946408748626709,0.8690884113311768,-0.0795968770980835,-0.700916051864624,0.30362722277641299,0.4188782870769501,-0.1368485689163208,0.5273103713989258,-0.7124619483947754,-0.48840057849884035,0.518303632736206]},{"rows":7,"cols":7,"flattened":[0.8674252033233643,0.8067014217376709,0.8688797950744629,-0.8215799331665039,0.220878005027771,0.14950501918792725,-0.9158952236175537,0.402220219373703,-0.8713679313659668,-0.7877349853515625,0.027051568031311036,0.39732882380485537,-0.3972891569137573,0.07234728336334229,-0.09084594249725342,-0.9406347274780273,0.6561589241027832,-0.29428184032440188,0.8111281394958496,0.19495880603790284,-0.945091962814331,-0.9492387771606445,-0.30720531940460207,-0.9284660816192627,-0.9392695426940918,-0.5184273719787598,-0.7582085132598877,0.26346465945243838,-0.7007737159729004,0.2472590208053589,0.43666741251945498,-0.026149392127990724,-0.7596776485443115,0.9343671798706055,0.6197555065155029,0.6921472549438477,0.48021742701530459,0.7527625560760498,0.02703559398651123,-0.05506622791290283,0.7011590003967285,0.5541298389434815,0.6698472499847412,-0.6004586219787598,0.47804567217826846,-0.14363610744476319,0.08096778392791748,-0.11557948589324951,-0.03225409984588623]},{"rows":7,"cols":2,"flattened":[0.7155613899230957,0.7128298282623291,-0.9557623863220215,0.7640838623046875,-0.7265233993530273,-0.3589824438095093,-0.45704591274261477,-0.7426528930664063,-0.33895838260650637,0.8616743087768555,-0.5258104801177979,-0.594031572341919,0.6933786869049072,-0.2216118574142456]}],"biases":[0.1594330072402954,0.5407891273498535,-0.202370285987854,-0.6141986846923828]}