{"weights":[{"rows":3,"cols":7,"flattened":[-0.4637492895126343,-0.3623565435409546,0.3884224593639374,0.6018495559692383,-0.20965397357940675,0.8628921508789063,-0.8634500503540039,0.31917330622673037,-0.8697047233581543,0.19778311252593995,0.3446669280529022,0.6631414890289307,0.7741868495941162,-0.9465453624725342,0.984243631362915,-0.48112285137176516,0.9156308174133301,-0.9161741733551025,-0.860426664352417,0.28302738070487978,-0.48166191577911379]},{"rows":7,"cols":7,"flattened":[0.01735985279083252,-0.6663360595703125,0.5644881725311279,0.7122163772583008,-0.7839372158050537,0.013379454612731934,-0.6467571258544922,-0.11259782314300537,-0.7680625915527344,0.33862707018852236,0.40108081698417666,0.634760856628418,0.5330491065979004,-0.8422818183898926,0.7934222221374512,0.11131870746612549,0.9423627853393555,-0.603071928024292,0.03313910961151123,0.5921545028686523,-0.7032709121704102,0.016701579093933107,0.20684278011322022,-0.5183713436126709,-0.14486587047576905,0.062496066093444827,-0.872643232345581,0.6318707466125488,0.8915724754333496,-0.4181162118911743,0.09928643703460694,-0.7304527759552002,0.37469980120658877,0.44083258509635928,0.15320265293121339,0.48511311411857607,-0.4412907361984253,-0.4247854948043823,0.4246329963207245,-0.7321510314941406,0.46027395129203799,0.18771278858184815,0.7638380527496338,0.6554579734802246,-0.1738065481185913,0.8557064533233643,0.7423076629638672,-0.9745399951934815,0.6512906551361084]},{"rows":7,"cols":7,"flattened":[0.3509640395641327,0.44161006808280947,0.43878433108329775,0.6290311813354492,0.435043066740036,-0.5797789096832275,0.8713219165802002,0.7209789752960205,-0.4768010377883911,-0.07806026935577393,-0.9023246765136719,-0.17108356952667237,0.46900317072868349,-0.19884884357452393,0.32037708163261416,-0.8988876342773438,-0.8171200752258301,0.22026288509368897,-0.8488559722900391,0.09555590152740479,0.999730110168457,-0.8099055290222168,-0.08329761028289795,-0.05168640613555908,0.6948881149291992,-0.4591614007949829,-0.03499948978424072,0.6732072830200195,0.39984604716300967,0.5642976760864258,-0.00943291187286377,0.4565882384777069,-0.5961997509002686,-0.37054455280303957,-0.3249884843826294,-0.7189950942993164,-0.6421101093292236,0.6821446418762207,0.08800971508026123,0.5305929183959961,-0.11833083629608154,-0.5708873271942139,-0.17051804065704347,0.28105852007865908,-0.7269496917724609,-0.031198859214782716,-0.2840529680252075,-0.8923947811126709,0.25877949595451357]},{"rows":7,"cols":2,"flattened":[0.4520725905895233,0.9844989776611328,0.3294372260570526,-0.811481237411499,0.13703548908233643,0.6731233596801758,-0.7884495258331299,0.649766206741333,-0.2937670946121216,-0.7127747535705566,-0.6733908653259277,0.07856714725494385,0.6459352970123291,0.7437624931335449]}],"biases":[-0.18726027011871339,0.36963722109794619,0.40958115458488467,-0.6006021499633789]}