{"weights":[{"rows":3,"cols":7,"flattened":[0.7016408443450928,0.3481585681438446,0.8688502311706543,-0.4471384286880493,-0.6540987491607666,-0.33257853984832766,-0.45982626080513,0.4855303466320038,0.958371639251709,-0.7935595512390137,0.5118801593780518,-0.7508068084716797,0.08274996280670166,-1.0,-0.3782738447189331,-0.785563588142395,0.6328377723693848,0.4626927077770233,0.3561963737010956,-0.27065789699554446,-0.8036057949066162]},{"rows":7,"cols":7,"flattened":[-0.5834126472473145,-0.7263152599334717,-0.9721698760986328,0.12874925136566163,-0.5591421127319336,-0.10198557376861572,-0.995995044708252,-0.0992351770401001,-0.44385087490081789,0.2813725173473358,-0.7396118640899658,-0.9521234035491943,0.6731061935424805,0.27814361453056338,-0.2001861333847046,-0.6492753028869629,0.20964539051055909,0.18469560146331788,0.7965712547302246,0.79244065284729,-0.4220849275588989,-0.11631500720977783,-0.634026288986206,-0.01739087700843811,0.09595191478729248,0.7909562587738037,-0.38358914852142336,0.110634446144104,0.9344165325164795,0.42871376872062685,0.023651719093322755,0.9294614791870117,-0.18827712535858155,-0.5140976905822754,0.08987510204315186,0.31900498270988467,0.6410164833068848,-0.08614051342010498,-0.27432072162628176,0.9783413410186768,-0.8194668292999268,0.5761294364929199,-0.9499683380126953,-0.8970551490783691,0.8542442321777344,-0.13980185985565186,-0.8053803443908691,-0.4159201383590698,-0.9603960514068604]},{"rows":7,"cols":7,"flattened":[-0.8467302322387695,0.2594136893749237,0.3319039046764374,-0.6782078742980957,-0.9795246124267578,0.4848878085613251,0.3569581210613251,-0.47773420810699465,-0.2096801996231079,0.6582238674163818,0.10679686069488526,-0.38127410411834719,0.5278365612030029,0.3858146369457245,-0.015139460563659668,0.7946076393127441,-0.7159552574157715,-0.61503005027771,0.7661778926849365,0.7695267200469971,0.7457854747772217,-0.9875998497009277,0.7596499919891357,-0.7136383056640625,0.2627520263195038,0.5789151191711426,0.6389404535293579,-0.6947131156921387,0.8746917247772217,-0.930260181427002,-0.46694791316986086,0.011748909950256348,0.24244534969329835,-0.0433884859085083,0.6503869295120239,-0.5989494323730469,-0.7178418636322022,0.33013030886650088,0.5293757915496826,-0.7259457111358643,0.8105912208557129,-0.3069967031478882,0.9624567031860352,-0.08564698696136475,0.4739961326122284,0.0038603544235229494,-0.29560387134552,0.3832988440990448,0.8230948448181152]},{"rows":7,"cols":2,"flattened":[0.8807098865509033,-0.3506211042404175,-0.0772632360458374,-0.31877028942108157,0.6905384063720703,0.33636829257011416,0.6829080581665039,-0.5085020065307617,-0.8971371650695801,-0.1546095609664917,-0.46255528926849368,0.7909464836120606,-0.9951174259185791,0.5961463451385498]}],"biases":[-0.03096449375152588,0.39406463503837588,-0.9582536220550537,-0.986414909362793]}