{"weights":[{"rows":3,"cols":10,"flattened":[0.4468028247356415,-0.22446811199188233,0.09643638134002686,-0.025468945503234865,0.20338189601898194,0.24255216121673585,0.14180004596710206,0.39347073435783389,-0.6177992820739746,0.5052554607391357,-0.007140517234802246,0.07694137096405029,-0.9613735675811768,0.9085962772369385,0.11473119258880615,-0.23699915409088136,0.5975332260131836,0.3718850314617157,0.6169257164001465,0.4554755389690399,0.30994436144828799,-0.7026998996734619,-0.6651754379272461,-0.23878729343414308,0.7206428050994873,-0.9991109371185303,-0.0276719331741333,-0.6776072978973389,0.6976237297058106,0.19267666339874268]},{"rows":10,"cols":10,"flattened":[0.273346871137619,-0.26617467403411868,-0.33052241802215578,-0.5728559494018555,0.16429650783538819,0.5940446853637695,0.8035414218902588,0.799046516418457,0.825700044631958,-0.15561997890472413,0.9953515529632568,0.6320550441741943,0.16639721393585206,-0.2694457769393921,0.2691807448863983,0.9535622596740723,0.4976138770580292,-0.9449396133422852,-0.6141223907470703,0.9647853374481201,-0.8629481792449951,0.20506513118743897,0.8040499687194824,0.13333165645599366,-0.6900198459625244,-0.9962701797485352,-0.06319153308868408,-0.21197259426116944,-0.20014512538909913,0.04827558994293213,0.9865787029266357,0.4729938209056854,-0.2914329767227173,-0.902691125869751,0.08760607242584229,0.17271506786346436,-0.7901599407196045,0.9908902645111084,0.12259948253631592,0.2096487283706665,-0.768139123916626,-0.306252121925354,0.07652390003204346,0.22813117504119874,0.07819664478302002,0.8287012577056885,-0.5051746368408203,0.49443408846855166,-0.006057858467102051,-0.949465274810791,-0.7183642387390137,0.9873881340026856,-0.562065601348877,-0.5185682773590088,-0.01675999164581299,-0.15200722217559815,0.24399840831756593,-0.09210836887359619,0.9311885833740234,0.21673619747161866,0.25376173853874209,-0.06443130970001221,-0.5861139297485352,-0.2637370824813843,0.03951084613800049,0.7986462116241455,-0.5717363357543945,0.79341721534729,-0.8843350410461426,-0.6582183837890625,-0.577716588973999,0.990004301071167,0.20241820812225343,-0.13661706447601319,-0.25962722301483157,-0.8531570434570313,0.2453693151473999,-0.7328710556030273,-0.0012189149856567383,-0.9585986137390137,0.6327192783355713,-0.3510249853134155,-0.8811304569244385,-0.13993537425994874,0.9712018966674805,0.39379259943962099,0.1727536916732788,0.672156572341919,-0.9561316967010498,0.5330135822296143,-0.4290856122970581,0.38611409068107607,-0.9235038757324219,-0.8313486576080322,-0.47959601879119875,0.4086129367351532,-0.2753258943557739,0.45351073145866396,-0.19671642780303956,-0.3502391576766968]},{"rows":10,"cols":2,"flattened":[0.42741844058036806,0.3624882400035858,-0.8466246128082275,-0.9027988910675049,0.9516384601593018,0.4846970736980438,-0.7348620891571045,0.5435514450073242,-0.20541298389434815,-0.4122501611709595,-0.35116779804229739,0.9097900390625,0.7511308193206787,-0.8077671527862549,-0.5167303085327148,0.04766809940338135,0.794095516204834,-0.7233004570007324,0.9694669246673584,0.05874741077423096]}],"biases":[0.01759040355682373,0.09991538524627686,-0.9589591026306152]}