{"weights":[{"rows":3,"cols":10,"flattened":[0.37629005312919619,0.13550317287445069,0.7461874485015869,0.9558136463165283,-0.6286156177520752,-0.6030676364898682,-0.803830623626709,0.49773332476615908,0.6901588439941406,-0.5266692638397217,0.6640582084655762,-0.0032230615615844728,0.229758620262146,-0.8238570690155029,-0.1833568811416626,-0.8442873954772949,0.825070858001709,0.7078163623809815,-0.35624778270721438,0.014090418815612793,0.9141743183135986,-0.4807671308517456,-0.7842254638671875,0.7502145767211914,0.9660148620605469,0.7565653324127197,-0.8627991676330566,-0.7779865264892578,-0.6258139610290527,0.49427530169487]},{"rows":10,"cols":10,"flattened":[-0.7397778034210205,0.2895333468914032,0.9191470146179199,0.7564806938171387,-0.6223793029785156,0.5848860740661621,-0.1994723081588745,0.8672387599945068,0.4512343108654022,0.30740615725517275,-0.39543426036834719,-0.7514493465423584,-0.05626785755157471,-0.8416717052459717,-0.6863102912902832,0.9096477031707764,-0.27294743061065676,0.4901282489299774,0.9322328567504883,0.07955706119537354,-0.25238072872161868,0.5504343509674072,-0.12302553653717041,-0.37538325786590578,0.9407649040222168,0.8772544860839844,0.037755608558654788,-0.13831889629364015,-0.7089669704437256,-0.3328515291213989,-0.8445279598236084,-0.7418913841247559,0.48384448885917666,-0.6003439426422119,0.44461676478385928,0.8673772811889648,-0.4458972215652466,0.36493417620658877,-0.4364098310470581,-0.9573900699615479,0.18768250942230225,0.22531044483184815,0.8777198791503906,0.1662355661392212,0.4073342978954315,-0.5934391021728516,0.9578456878662109,-0.4302161931991577,-0.22433102130889893,-0.6275970935821533,0.33126184344291689,0.3899519145488739,-0.2313328981399536,0.34784528613090517,-0.9751620292663574,-0.5816323757171631,0.8032159805297852,-0.8247373104095459,-0.310771107673645,-0.2945960760116577,0.3375341594219208,-0.46820175647735598,-0.9325945377349854,0.21667373180389405,0.8519115447998047,0.2598738372325897,0.2435377836227417,0.854248046875,0.30103227496147158,-0.9761970043182373,-0.709733247756958,-0.9079813957214356,-0.6058700084686279,0.04556119441986084,0.1973053216934204,0.262083500623703,-0.7602367401123047,-0.11888372898101807,-0.42731010913848879,0.653641939163208,0.6107823848724365,-0.46401679515838625,0.4758727252483368,-0.3157311677932739,0.8747951984405518,0.18754494190216065,0.1884089708328247,0.4970795810222626,0.23609602451324464,-0.2710379362106323,0.09604847431182862,-0.1715008020401001,-0.20724904537200929,-0.34260356426239016,0.4062671363353729,0.774735689163208,-0.5779917240142822,0.3428349196910858,0.570469856262207,-0.40803682804107668]},{"rows":10,"cols":2,"flattened":[0.8618612289428711,-0.6592342853546143,-0.3938642740249634,-0.781008243560791,-0.29885590076446535,0.3238348662853241,-0.31418049335479739,0.9351465702056885,0.6890270709991455,0.571181058883667,-0.8471846580505371,-0.5508067607879639,0.572699785232544,0.8888101577758789,0.16888201236724854,-0.4576009511947632,0.6583945751190186,0.9872899055480957,-0.3281322717666626,-0.5312464237213135]}],"biases":[-0.12589848041534425,0.10017621517181397,0.408168762922287]}