{"weights":[{"rows":3,"cols":5,"flattened":[0.3379215896129608,0.9081466197967529,0.37256476283073428,0.5601577758789063,0.8931460380554199,-0.6384105682373047,-0.16905105113983155,-0.8245060443878174,-0.16011011600494386,-0.7249841690063477,0.5367746353149414,0.608654260635376,0.9146125316619873,-0.09885036945343018,-0.09613454341888428]},{"rows":5,"cols":5,"flattened":[-0.9945752620697022,0.34041163325309756,-0.726442813873291,-0.15693557262420655,0.13894379138946534,0.23210680484771729,0.2796935737133026,-0.6619753837585449,0.9299716949462891,0.22552573680877686,0.8994019031524658,0.46385690569877627,0.37303635478019717,-0.13145577907562257,-0.7971019744873047,-0.714522123336792,-0.9818334579467773,0.6472740173339844,-0.7700879573822022,0.8658523559570313,0.43251702189445498,-0.6068544387817383,0.4322795569896698,-0.8747010231018066,0.30165812373161318]},{"rows":5,"cols":2,"flattened":[0.6217925548553467,0.5668058395385742,0.028490900993347169,0.7793328762054443,-0.9604325294494629,-0.29292190074920657,-0.287817120552063,0.6280908584594727,0.19233882427215577,-0.9669501781463623]}],"biases":[-0.21580040454864503,-0.11052453517913819,-0.3379160165786743]}