{"weights":[{"rows":3,"cols":5,"flattened":[-0.3945804834365845,-0.9889984130859375,0.2517082393169403,0.548628568649292,-0.7273962497711182,-0.14111554622650147,0.32031652331352236,-0.03489792346954346,0.7362115383148193,-0.7679946422576904,0.18809020519256593,0.5556495189666748,-0.8643605709075928,0.4583997428417206,0.22036302089691163]},{"rows":5,"cols":5,"flattened":[-0.9248087406158447,-0.3796011209487915,0.9898152351379395,0.40037962794303896,-0.5491931438446045,0.8600809574127197,-0.31251680850982668,0.19149339199066163,0.32773324847221377,-0.5338740348815918,-0.42747294902801516,0.7777862548828125,0.6578130722045898,0.8665940761566162,0.9550142288208008,-0.9930164813995361,0.22803270816802979,-0.49052608013153078,0.46985217928886416,0.620152473449707,0.4389779269695282,0.18178784847259522,0.6804189682006836,-0.9711661338806152,0.9592828750610352]},{"rows":5,"cols":2,"flattened":[0.9711623191833496,-0.07973110675811768,0.5446245670318604,-0.7677536010742188,-0.06904304027557373,0.9309384822845459,0.3264727294445038,-0.39276182651519778,0.8069779872894287,-0.18745291233062745]}],"biases":[0.8620455265045166,-0.772057056427002,-0.6365184783935547]}